636000 300
， 0.880404 0.354114 -0.095070 -0.662846 -1.202154 0.666662 1.362683 -1.241490 -0.191519 0.294616 0.043466 0.159277 0.617079 0.290925 -0.523915 0.293065 0.275248 0.071868 0.604246 0.217495 1.105137 -1.340316 -0.263280 -1.004308 -1.162166 0.665115 1.379388 1.497019 1.109849 0.695327 -0.107631 0.171598 -0.004786 0.235784 1.183910 0.011169 -0.725271 0.825526 0.587837 -0.726109 -0.023429 0.048674 -0.110084 -1.016167 0.283014 -0.132167 -1.597039 -0.459306 0.432657 -0.680308 0.911057 0.929748 0.108353 -0.771077 0.773711 -0.164388 0.341846 -0.106402 -1.769521 0.485821 1.713187 -0.998163 -0.265896 0.635276 0.112287 -0.395248 0.594642 0.082700 0.178880 0.394245 -1.019058 -0.648331 -0.078052 -0.637499 1.382785 -0.295952 0.677854 0.783591 0.027855 -0.699826 -1.001099 -0.824529 -0.043316 -1.091224 -0.642702 -0.072977 0.249577 0.553285 0.187660 -1.360226 1.189606 0.372750 -1.161706 -0.602885 -0.690056 -0.332233 -0.936868 -0.527255 1.207336 0.066658 1.526693 -0.025188 0.252008 -0.881033 1.153913 -0.631441 0.648323 0.116481 0.730907 1.509306 0.164423 0.892190 0.021037 -0.609778 -0.486012 -1.096327 0.536885 1.213323 0.859713 -0.380414 -0.920835 0.852017 0.775817 -0.318684 -0.452918 1.145674 -0.380681 0.916832 0.377675 1.484811 -0.354442 -0.426092 -1.132260 -0.276972 -0.131302 0.820603 -1.181722 -0.504160 -0.308333 0.699779 0.276129 0.433121 0.048089 -0.109473 -0.928323 0.602986 1.769763 -0.741639 1.111516 1.212261 -0.076585 0.085151 0.036272 -0.186759 0.522950 0.061799 0.150370 -0.914368 0.226992 -0.139867 -0.700628 0.513383 0.077631 0.066403 -1.212340 1.201046 0.189353 0.822988 -0.384307 0.496052 0.998733 -0.860703 -0.170845 -0.055010 1.357697 -1.023580 -0.878351 -0.069961 0.121208 -0.811879 -1.026290 -0.430299 -0.110968 -1.235391 0.296845 0.318493 -0.336834 0.316738 -0.862708 0.890627 -0.555475 0.027535 1.101384 -0.893270 -1.613140 -0.079504 0.649371 -0.858667 -0.871141 0.094994 -0.830491 1.656799 -0.300397 0.946392 -0.819107 -0.888681 0.678355 0.392608 0.092622 -0.978988 1.604862 0.231038 -0.558387 0.041738 -0.140214 -0.324157 -0.387803 -0.260770 0.004012 -0.921032 -1.387526 -0.747412 -0.553317 -0.165252 1.208189 -0.366573 0.000853 -0.533619 0.352553 -0.274572 -0.490466 0.272421 -0.908577 -0.428128 0.395903 0.229997 0.524859 -1.046504 -0.604385 0.580497 0.187475 0.797040 -0.556867 0.167205 -0.976253 -0.173546 -0.617809 0.703284 -1.598262 -1.327155 0.385992 -1.066505 -0.878705 -0.782338 -0.285030 0.700545 -0.344984 -0.141496 1.666541 -1.328634 1.511440 0.120808 -0.476801 0.157903 0.007464 0.017154 1.033813 0.797268 -0.675911 0.355987 0.039450 0.314287 -0.099880 0.076900 0.068216 0.956375 0.390424 -0.592799 -0.241765 0.377650 -0.016476 -0.574427 -0.774277 -1.302695 2.146264 0.001352 -0.894086 0.041503 0.127339 -0.499824 0.211685 1.501856 0.807655 1.639377 -0.880703 0.325457 -0.257136 0.670017 0.376305 -0.579780 
的 0.139860 0.109609 -0.089908 0.172020 0.014541 0.093122 -0.039731 -0.082136 0.103928 -0.052816 0.029530 0.080098 -0.057346 0.071719 0.092944 -0.059929 0.005718 0.158640 -0.067733 0.026033 0.008573 0.055985 -0.031573 -0.012545 0.134875 -0.108697 -0.080203 -0.055489 0.025982 0.011056 -0.072592 0.025239 -0.156802 -0.132357 0.101510 0.045672 0.181923 0.069042 -0.052404 0.183626 0.047453 -0.028694 -0.146361 -0.101125 0.096391 0.068462 0.004323 -0.032004 -0.040477 0.024369 0.039302 0.120329 0.022331 -0.059294 -0.089759 0.088876 0.150988 0.050316 0.045060 0.209050 -0.018767 0.038645 0.066789 0.011062 -0.108875 0.059176 -0.025080 0.015474 0.110579 -0.074520 0.085782 -0.077529 -0.098374 -0.025482 -0.014896 -0.185012 0.086637 0.029559 -0.003641 -0.080224 0.091109 0.155211 0.104773 0.172246 -0.153535 -0.078687 -0.079095 0.023331 -0.040304 -0.064653 -0.109369 0.058624 0.072025 -0.222770 0.134667 -0.041730 -0.112394 -0.016145 -0.027278 -0.070134 -0.079404 0.240097 -0.094798 0.070273 0.021027 -0.089125 -0.043238 -0.020865 -0.066673 -0.038514 0.215449 -0.028297 -0.020251 0.174838 0.033397 -0.044905 -0.107116 0.127181 0.069053 -0.083182 0.002704 -0.040599 -0.247620 0.033974 -0.078518 0.034123 -0.091001 0.090312 0.064852 -0.025823 -0.153166 0.025525 0.098571 0.098675 -0.081195 0.173687 0.184460 -0.061943 -0.062777 0.077052 -0.116843 0.104439 -0.165074 0.011681 -0.006445 0.051131 -0.129059 -0.017254 -0.083372 -0.087990 0.000009 -0.112616 0.071619 -0.025617 -0.059874 -0.042177 0.035595 0.068679 0.008584 0.106915 0.054294 -0.216421 0.066085 -0.020652 0.210762 -0.054469 0.063686 -0.052015 -0.116659 0.023311 -0.088001 -0.023896 0.114890 -0.126251 -0.107960 -0.120584 0.039224 0.098572 0.149173 0.167027 0.068660 -0.127790 0.027768 -0.089054 0.017383 0.160668 0.025352 -0.015812 -0.005624 -0.108984 0.086946 0.010075 -0.112138 0.044430 0.203660 -0.098713 -0.071911 -0.005774 0.037628 -0.093594 0.071402 -0.081398 -0.057373 -0.112255 -0.070158 0.099526 -0.000953 0.081061 -0.152112 0.044884 0.013974 -0.056115 0.004317 0.076337 0.021335 0.044089 -0.069165 0.110588 0.026426 0.020081 0.118492 -0.000587 0.008752 -0.005056 0.101467 0.034381 0.126095 0.082111 0.088832 -0.013329 0.021169 0.136730 -0.015167 0.190214 -0.124227 -0.210734 0.069194 0.068296 -0.049498 0.062325 0.135197 -0.093765 -0.019750 -0.005360 0.051975 0.047391 0.200175 -0.005189 0.098319 0.133744 -0.013582 0.038316 0.053967 0.056699 -0.088018 0.013974 -0.087640 -0.224462 0.015549 0.127247 0.006910 0.127242 0.061194 0.040239 -0.014612 0.043200 0.009826 -0.015589 0.100780 0.094130 0.091913 0.217438 -0.098845 -0.167552 -0.005609 -0.210151 -0.021102 -0.026682 0.049201 -0.010490 -0.050554 0.018547 -0.169349 -0.135490 -0.030634 0.061552 -0.117056 -0.002251 -0.071661 0.157295 0.029468 0.095069 -0.079511 -0.043785 0.032271 -0.069658 -0.230281 0.021257 -0.113335 -0.135262 
。 0.118364 0.031333 -0.020453 0.112668 -0.014966 0.025969 0.049640 0.003394 0.084526 0.076502 0.064197 0.022599 -0.003453 -0.025324 -0.027109 0.150108 -0.123733 0.015199 -0.086143 0.138623 0.004717 -0.029822 -0.079163 -0.024601 0.105454 0.045818 0.052623 -0.096330 0.022512 -0.046126 0.006313 0.028953 -0.016923 -0.007064 0.063803 0.065349 0.104493 0.042741 -0.105369 0.009849 0.073074 0.012135 -0.045937 -0.020215 0.042536 0.066845 0.163146 -0.077366 0.008857 -0.010321 0.067104 0.016907 0.079647 0.104193 -0.049651 0.010876 0.136051 0.107674 -0.034713 0.006594 -0.052492 0.141417 -0.019051 0.013886 -0.125536 0.190939 -0.079820 0.144164 0.033628 0.112485 0.057434 -0.005583 -0.089497 -0.019617 -0.046783 -0.068173 0.001945 0.085140 -0.017522 -0.025587 0.140755 0.044945 0.039639 0.078996 -0.184350 -0.103280 -0.089284 0.001697 0.077735 -0.105778 -0.119279 -0.008976 0.156036 -0.047937 0.124846 0.013617 0.008954 0.102932 0.010803 0.044088 -0.149267 0.186430 -0.118938 0.055225 -0.037764 0.032687 0.048597 -0.066693 0.099519 0.000556 0.192814 0.102968 0.084547 0.205221 -0.001060 0.135685 0.062989 -0.017947 -0.006546 0.108990 -0.063340 -0.014413 -0.053727 -0.032889 0.035536 -0.102566 0.017302 0.029450 0.066539 0.083252 -0.052023 -0.004886 -0.069499 0.040553 0.013482 -0.023384 0.144119 -0.055562 0.072251 0.022081 -0.082672 0.006104 -0.030504 0.001924 -0.123990 -0.010326 0.147636 -0.013546 -0.017748 -0.100503 -0.131977 0.037837 0.033465 0.046770 0.025561 -0.144469 -0.076077 -0.039558 -0.069569 0.008872 -0.026977 -0.240552 0.141901 -0.034281 0.238893 0.015648 0.046075 -0.093821 -0.068215 -0.015436 0.014022 0.025867 0.066810 0.023023 -0.026486 0.104026 -0.007195 -0.008942 0.031248 0.131106 0.146368 0.013496 0.048418 0.094099 -0.046209 0.158342 0.133561 -0.030492 -0.042720 -0.034298 0.172286 -0.001326 -0.093254 -0.004148 0.018436 -0.069459 -0.005595 -0.133565 0.109362 0.031904 0.002268 -0.007791 -0.119766 -0.069413 -0.010337 0.062685 -0.000375 -0.037547 -0.073607 0.179416 0.031501 -0.038038 0.147650 -0.018648 0.100885 -0.079588 -0.060393 0.129772 -0.032783 0.048814 0.199234 0.028235 0.035856 -0.093013 0.062813 0.091751 0.116674 0.070306 0.022794 -0.113073 -0.045402 0.016082 0.089875 0.027560 0.097216 -0.099094 0.066420 0.030494 0.048922 0.011913 -0.047491 -0.063665 0.061398 -0.012682 0.044049 0.011312 -0.069301 0.046582 -0.055282 0.060442 0.038203 0.039158 -0.057216 -0.055911 -0.027194 -0.027772 0.034297 -0.139876 0.009452 0.309751 -0.060787 0.130318 -0.040274 -0.036389 0.061105 -0.101692 0.049798 -0.014733 -0.032635 -0.019636 0.062266 0.114187 -0.064236 0.092855 -0.046062 -0.064845 0.154538 -0.156271 -0.014106 -0.076891 0.104391 -0.084283 -0.124925 -0.110265 -0.089548 -0.012296 -0.173691 -0.031573 -0.008005 0.118400 0.056411 -0.028584 -0.115699 -0.066362 0.030222 -0.086102 -0.049320 0.058593 -0.022654 -0.064468 
、 0.218791 -0.019575 -0.279898 -0.001592 -0.003357 0.012444 -0.140800 -0.072539 0.381024 -0.152883 0.099925 -0.076153 0.179674 -0.170733 -0.272736 0.212773 -0.090474 0.025551 0.121691 0.074069 -0.147941 -0.010186 0.147747 -0.211483 0.359938 -0.316670 -0.068487 -0.158640 0.016371 0.309210 -0.031567 -0.154205 -0.043700 -0.063403 0.074295 -0.035932 -0.066734 -0.120145 0.148655 -0.080356 -0.133379 -0.167531 0.186975 -0.162147 -0.057731 -0.019070 -0.208078 -0.212904 -0.100214 0.183233 -0.285789 -0.031379 0.168910 -0.007825 -0.062974 -0.065984 0.212893 0.120308 -0.037483 0.243875 -0.246309 -0.037211 -0.029595 0.252408 -0.093519 0.070244 0.183402 0.117563 0.070823 0.027252 0.095940 -0.223093 -0.125434 0.299065 0.084049 -0.015088 -0.263772 0.176670 -0.075325 0.045428 0.014132 0.059894 -0.283489 -0.041736 -0.059433 -0.172188 0.095474 -0.100808 0.009440 0.062763 -0.059464 -0.404389 0.299012 -0.054387 -0.015720 0.168289 0.250528 -0.025726 -0.049267 -0.081643 0.019392 0.004942 0.004066 0.201767 -0.150774 0.109023 0.001201 0.047148 -0.027545 -0.094331 0.018583 -0.080875 0.077098 0.222582 0.004234 0.112753 -0.122250 -0.078590 0.455668 -0.233084 0.304746 -0.056597 0.067980 0.309203 -0.008417 0.102728 -0.398383 0.107557 -0.197861 -0.144043 -0.179800 0.063719 -0.050123 0.020117 -0.251533 0.272425 0.147708 0.097160 -0.034101 -0.064378 -0.149739 0.061647 0.002745 0.108669 0.241577 -0.119916 -0.051382 0.028516 -0.116332 -0.037296 -0.046415 0.116981 0.013211 -0.121818 -0.115601 0.106547 -0.124867 -0.113397 -0.056677 0.104891 0.041694 0.168234 0.257403 -0.048782 0.047147 0.188072 0.133096 0.202189 -0.205907 0.002873 -0.132279 -0.131047 0.322270 0.078387 -0.013211 -0.107872 0.116931 -0.130362 -0.092041 0.002207 0.187458 0.186692 0.195087 -0.230602 0.136943 -0.036245 0.248476 0.029439 -0.264900 -0.213104 -0.018286 -0.243351 -0.115834 0.139258 0.036582 -0.025942 0.272816 0.056597 -0.037558 -0.012793 0.155029 0.068088 -0.047373 -0.128297 -0.125960 0.309226 -0.068458 -0.082745 -0.070568 0.108086 0.107955 0.179273 0.340088 0.239411 -0.170073 -0.114642 0.244056 0.200047 -0.147433 0.233962 0.045269 0.060818 -0.027503 -0.157796 -0.109597 0.187154 -0.139008 0.121231 0.166663 0.211407 -0.007682 -0.061720 -0.063963 -0.155023 -0.167570 -0.283689 0.107302 0.087849 -0.066928 0.033254 -0.044627 -0.084068 -0.044014 -0.010693 0.285573 0.082772 0.218067 0.041217 -0.050100 0.110662 0.071223 0.170847 0.075359 0.129913 -0.311230 0.106326 -0.043398 -0.024845 -0.025140 0.001870 0.024320 -0.151329 0.006821 -0.159839 0.111148 0.032206 0.079559 -0.104506 -0.204104 0.062529 0.004064 -0.202893 -0.066519 0.030041 -0.155747 0.226801 -0.086077 -0.028591 -0.196651 -0.051129 -0.024013 0.154826 0.095646 0.125331 -0.172046 -0.108685 0.080823 0.022178 -0.169496 0.143051 0.107612 -0.155569 -0.284352 -0.135641 -0.091485 0.135839 0.077809 -0.092218 0.163359 0.166294 
, 0.312876 -0.104212 -0.026752 0.062154 -0.211880 -0.121994 -0.186278 -0.036547 0.092660 0.207847 -0.194263 -0.041797 -0.085229 -0.023523 -0.142332 0.094508 0.183852 -0.061792 -0.119376 0.075161 -0.124290 -0.166040 0.040113 0.316694 0.282258 -0.236778 -0.144807 -0.117926 0.097325 0.058272 0.141729 0.130020 0.243717 0.033965 0.077832 0.109625 -0.014592 0.105558 -0.106629 -0.141345 -0.123041 0.156471 0.306988 -0.103601 0.126434 -0.015271 -0.149071 -0.047215 0.030630 0.167875 -0.144593 -0.064588 0.000599 -0.175124 -0.020033 -0.270925 -0.010660 -0.052620 0.155835 -0.213891 -0.147626 -0.082255 0.078286 0.072122 -0.042057 0.024422 -0.114835 -0.255214 0.060949 0.171928 -0.042210 0.027431 0.010123 0.110684 0.003564 0.075895 -0.174561 -0.090715 0.077623 0.115504 0.187139 0.139632 0.136029 0.077903 -0.036483 -0.068958 0.259598 -0.088607 0.018128 0.116797 -0.050531 0.047716 0.206779 0.361221 0.346887 -0.032188 0.313165 -0.048939 -0.163724 -0.037696 -0.122411 -0.207707 -0.097907 -0.091089 -0.127315 0.057233 -0.181961 0.052948 -0.154152 -0.331878 0.033090 0.178359 -0.038688 -0.269560 -0.124110 -0.031332 0.033961 0.083914 0.179677 0.113377 -0.051416 0.186946 -0.077222 -0.069154 -0.011078 0.276190 -0.052927 0.139766 0.030565 -0.080924 0.148985 -0.035005 0.034880 0.056143 0.141801 0.381475 -0.122929 0.041365 0.184206 -0.099133 -0.165696 0.118841 -0.186579 0.111842 0.098334 -0.338358 -0.099713 -0.129914 0.105100 -0.109666 -0.060869 0.056418 0.113714 -0.111543 0.218169 0.042557 -0.218871 -0.125866 0.099188 0.066804 0.215384 -0.036704 0.304289 -0.015942 0.236814 -0.017869 -0.031556 -0.142551 -0.197516 0.034286 -0.192960 0.028700 0.051842 0.411626 -0.309610 -0.018047 -0.103064 0.108655 -0.205560 0.050243 0.098088 -0.022201 0.167885 -0.029995 -0.043354 0.020598 0.022480 0.168041 -0.146400 0.005952 0.169611 0.373063 -0.008813 -0.206680 0.029602 0.058544 0.107047 -0.104168 -0.160875 -0.076926 0.079305 -0.174415 0.029572 -0.231446 0.097689 -0.017911 -0.134988 0.024303 0.187157 0.390277 -0.101004 0.531538 0.087702 -0.031088 0.183855 -0.014927 0.048161 -0.071853 -0.076408 0.117293 -0.006545 -0.105551 -0.060427 -0.234156 -0.180433 -0.070787 0.098457 0.231976 -0.126116 0.124363 -0.103508 0.134091 0.022936 0.164001 0.006522 0.141878 0.019587 0.078237 -0.133859 -0.035541 0.132109 -0.362342 0.022216 0.043689 0.199323 0.136685 -0.049217 0.092589 -0.407492 0.060985 0.119989 0.215545 -0.249260 0.132789 0.015701 0.101244 0.068427 0.256300 0.024536 -0.106475 -0.108931 0.118256 -0.182447 -0.039542 0.462089 0.216088 0.210917 -0.110499 0.026414 0.101016 -0.344686 -0.024008 0.205731 -0.132891 -0.113221 0.113677 0.051005 -0.094850 -0.389837 -0.305532 0.201099 0.009517 0.006528 0.062806 -0.348667 0.047124 0.233845 0.074713 0.147935 0.096953 -0.180957 -0.193493 -0.121458 -0.040977 0.165067 -0.115127 -0.046717 -0.362900 0.091719 -0.150472 
： 0.308136 -0.207049 -0.144443 0.010545 0.181031 -0.056150 -0.115190 0.084938 0.128407 -0.141163 0.039719 -0.007219 -0.088341 -0.122885 0.181184 -0.014283 0.220891 -0.189789 0.129144 -0.037514 -0.301204 -0.062272 0.076007 -0.066341 0.085238 -0.023592 -0.070275 0.114150 0.112857 0.021055 0.127461 0.090086 0.036127 0.053058 0.055356 0.111505 0.048441 -0.092028 -0.057869 -0.091878 0.038852 0.041706 -0.007151 -0.073133 0.329539 -0.227257 -0.047784 -0.145010 0.016028 0.227637 0.023726 0.085390 -0.017587 -0.052711 0.082715 0.002718 -0.089595 0.075359 -0.016326 -0.192823 -0.094854 -0.054356 -0.008879 -0.123616 -0.275131 -0.048798 -0.433668 -0.141559 -0.257868 0.216106 0.092273 -0.049193 -0.033703 0.132940 -0.013201 0.016111 -0.327154 0.016391 -0.129315 0.069574 0.294711 -0.197811 0.056602 -0.260789 -0.191973 -0.034330 0.153892 -0.054194 0.143594 0.178320 0.009514 0.237080 0.264284 -0.050580 -0.079603 0.087875 0.067476 0.267267 -0.016193 -0.095118 0.035903 0.183982 -0.108853 0.329905 -0.027719 -0.002652 -0.168138 -0.259514 0.124556 -0.245856 0.205233 0.054558 0.063508 -0.002795 -0.002292 0.105176 0.156683 -0.166878 0.435845 0.124954 0.123873 0.124310 -0.078550 -0.108956 -0.168744 0.050596 -0.076328 0.014063 0.103534 -0.242284 -0.077817 -0.005691 -0.144345 0.006733 -0.032879 -0.044852 -0.002295 -0.123652 0.333851 -0.210762 0.053104 0.174439 -0.009657 0.110087 0.291290 0.003758 0.134732 -0.098235 -0.000365 -0.350155 0.091976 0.322058 0.151976 -0.020300 0.110760 0.180006 -0.153437 -0.306922 -0.197935 -0.157976 0.278124 -0.441887 0.282983 -0.204186 0.202428 0.103946 -0.133977 -0.048745 0.038078 -0.058333 -0.136851 0.104168 0.021570 0.062824 0.099061 0.004379 0.207648 0.078006 -0.327643 -0.215858 -0.055389 -0.079198 -0.012146 -0.021370 0.069235 -0.076241 0.025553 -0.126559 0.096756 -0.047405 0.117346 -0.007689 -0.350352 0.139395 -0.324546 -0.081219 0.037868 -0.290113 -0.193579 0.041762 -0.126137 -0.072406 -0.053170 0.049706 -0.173440 0.114795 -0.164674 0.032072 0.071804 0.058460 0.046695 0.206314 0.053491 0.126848 0.108968 -0.189795 -0.061523 0.248705 -0.135423 -0.018423 0.141093 0.040370 0.003989 0.011908 -0.128042 -0.167897 0.194523 0.010307 -0.089595 0.147594 -0.147844 -0.095414 -0.099007 -0.089897 -0.038838 -0.238051 0.056649 0.331840 0.105706 0.028275 -0.065496 -0.345118 0.101538 0.001552 0.151709 -0.048772 -0.137531 -0.096851 -0.046497 0.086876 0.026789 -0.149254 -0.132906 0.071425 0.127259 -0.025143 0.101602 0.118324 0.213273 -0.155195 0.043541 0.003860 0.252803 -0.174736 -0.068004 0.030232 0.020674 -0.344165 -0.153257 -0.141117 -0.159949 -0.003743 0.035216 0.100421 -0.036670 0.033781 -0.125505 0.163204 0.016506 -0.362212 -0.170872 0.183778 0.085575 0.050101 -0.059859 -0.061609 0.189585 -0.228901 0.302253 0.235569 -0.102997 -0.021446 0.110301 0.172940 0.270764 -0.063946 -0.006900 -0.305186 -0.079513 0.049041 
和 0.101058 0.103693 -0.146442 0.200192 0.030315 0.014099 -0.059829 -0.123401 0.200715 -0.115261 0.101418 0.062913 0.105565 0.051526 -0.053334 -0.073460 -0.040713 0.215951 0.013705 0.125897 -0.060993 0.087557 0.091879 -0.067362 0.195550 -0.282067 -0.003740 -0.120895 -0.095607 0.030104 -0.061251 -0.018225 -0.320596 -0.132039 0.071997 0.015209 0.003450 -0.068632 -0.024731 0.075320 -0.009288 -0.113845 0.104925 -0.070238 0.084567 0.035880 0.003826 -0.220705 -0.142388 0.156452 -0.097390 0.095814 -0.028131 -0.057406 -0.034813 0.024476 0.179611 -0.026330 -0.059283 0.347860 -0.059380 0.004582 0.041966 0.147707 -0.122628 -0.090123 0.078232 0.097012 0.166271 0.033968 0.162475 -0.024047 0.040054 0.105218 -0.006192 -0.179273 -0.066903 -0.024610 0.063813 -0.032946 0.086995 0.002680 -0.063035 0.200631 -0.174747 -0.139572 -0.025873 -0.137951 -0.134810 0.031611 -0.199731 -0.036259 0.101403 -0.128244 0.067666 0.080191 -0.130737 -0.116907 -0.053413 0.042306 0.057643 0.127708 -0.048919 0.092574 -0.084218 0.061261 -0.016768 0.073140 -0.116043 0.072906 0.147433 -0.073168 0.096444 0.255023 -0.084881 0.099600 -0.178446 0.116905 0.174336 -0.239985 0.217963 -0.022443 -0.085262 0.159427 -0.087389 0.112199 -0.215844 0.025633 0.095542 -0.038155 -0.134920 -0.022373 -0.009369 0.135462 -0.112346 0.320377 0.209908 0.064757 -0.080977 0.021657 -0.137450 0.050176 -0.102954 0.176179 0.161674 -0.027753 -0.009635 0.079102 -0.128431 -0.053572 -0.098918 0.076296 0.140714 -0.140613 -0.124682 0.045670 0.007092 -0.002954 -0.055946 -0.040798 0.099253 -0.065401 0.126709 -0.032298 0.090528 -0.138256 0.043228 -0.014591 -0.122671 0.025398 -0.135437 -0.094820 0.168171 -0.064524 -0.082216 -0.119352 0.112311 0.055383 0.242085 0.188396 0.299286 -0.088901 0.049149 -0.114060 0.107385 0.028072 0.151121 -0.051755 -0.190084 -0.136610 0.163405 -0.193714 -0.140370 0.050577 0.142438 -0.165832 0.182786 -0.005652 -0.060988 -0.125120 0.110142 -0.017124 -0.175171 -0.108017 -0.076906 0.210023 0.093153 0.233131 0.002371 0.093370 0.006729 -0.008585 0.198431 0.160046 -0.144193 -0.109647 0.041389 0.084365 -0.048659 0.208331 0.077009 0.137472 0.078200 -0.093569 0.038873 0.063671 -0.098790 0.061367 0.055183 0.056612 0.157672 0.165151 0.040407 0.160926 -0.099181 -0.213754 0.057699 -0.037348 -0.044526 0.088697 0.003701 -0.094430 0.014138 0.019129 0.217738 0.102982 0.161308 0.051040 0.085185 0.183103 0.038323 0.154186 0.135952 0.103536 -0.129553 -0.003987 -0.062801 -0.117682 -0.035256 0.058260 0.053041 0.072303 0.061536 0.090145 -0.012390 0.072387 0.094884 -0.048060 -0.010696 0.034476 0.099304 0.074373 -0.121227 -0.112884 -0.112285 -0.061033 -0.118679 -0.049173 -0.108135 -0.105533 -0.083375 0.130563 -0.061502 0.033090 -0.117189 -0.103257 -0.114666 0.051253 -0.274110 0.084677 -0.003821 -0.046599 -0.087998 -0.138349 -0.039626 0.044645 -0.143533 0.026596 -0.037669 0.049105 
在 -0.056960 -0.127862 -0.055935 0.084042 0.136579 0.235623 -0.134376 0.087836 0.036371 0.051643 -0.035206 0.115863 -0.066765 -0.059442 0.068781 0.012364 0.024496 0.243773 -0.037756 -0.027334 0.015192 -0.056952 0.203065 0.070370 0.185321 -0.137160 0.096365 0.020242 0.074654 0.086814 -0.148288 0.028999 -0.225368 -0.229643 -0.017114 0.225457 0.245420 -0.068536 -0.034317 0.094626 0.050184 0.021570 -0.168750 -0.156174 0.030106 0.164304 -0.020207 -0.027846 -0.093583 0.035567 -0.079955 0.044387 0.110272 0.157510 -0.286425 -0.065250 -0.046908 0.121132 0.008559 -0.022671 -0.028430 0.207466 0.199896 -0.060009 0.084326 0.109055 0.205680 0.167597 0.074252 -0.040323 -0.060314 -0.001955 0.043880 -0.106059 -0.090334 -0.098177 0.085030 -0.000851 0.075848 0.153748 0.199417 0.187446 0.076908 0.028956 0.110083 -0.019290 0.004911 0.057209 0.078047 -0.026461 -0.055073 0.079212 0.007888 0.029233 0.268481 -0.065740 -0.086486 -0.086130 -0.135206 0.115571 -0.100638 0.094627 -0.014506 0.079055 -0.077949 0.111760 0.054624 -0.018716 -0.008912 -0.012149 0.158902 -0.095504 -0.016981 0.208871 -0.102973 -0.126395 0.011582 0.029184 -0.079735 -0.082080 0.025422 0.142741 -0.103065 -0.317630 -0.013113 -0.050437 0.189657 0.081402 0.099789 0.020851 -0.140248 0.024876 -0.016317 0.050807 -0.038313 0.126791 -0.001292 -0.316687 -0.104957 0.016100 -0.027965 -0.082356 -0.037133 -0.100421 -0.032825 0.097051 -0.077181 0.189124 -0.013758 -0.141238 -0.030855 -0.274133 0.253575 -0.002053 -0.080697 -0.163343 0.130894 -0.016680 -0.037228 0.184392 -0.031625 -0.262245 0.129669 0.005685 0.212552 0.017405 -0.036982 -0.034393 -0.087952 0.145353 -0.189029 -0.093180 0.142990 -0.041276 -0.083191 0.131183 0.033423 0.240951 0.271431 0.189250 0.290436 0.059671 0.013450 0.010862 -0.062308 0.206150 -0.024535 0.057894 0.014998 0.038438 0.044154 -0.048510 0.100704 -0.100124 0.068948 0.022854 -0.076258 -0.026744 -0.142329 -0.206577 0.077940 -0.146134 -0.225986 -0.130924 0.149814 -0.009977 0.024761 -0.105147 -0.097211 0.134243 -0.155078 -0.144638 -0.066461 0.162118 0.200389 -0.041779 -0.065171 -0.026600 0.079475 -0.055503 0.106352 -0.070862 0.066600 -0.054054 0.156131 0.218627 -0.064329 0.088453 0.058568 -0.111678 0.062041 0.107548 -0.087679 0.116761 -0.062438 -0.175099 -0.191958 0.052025 -0.163903 0.085949 0.021023 -0.096411 -0.037865 0.099946 0.202738 0.124968 -0.027966 -0.011027 -0.016686 0.210717 0.066960 0.043201 -0.124619 -0.058243 0.039870 -0.006007 -0.024311 -0.334416 0.000458 0.175825 0.019984 0.217288 0.046419 0.174299 -0.122423 0.023975 0.217911 -0.182034 0.231926 0.057526 0.130708 0.151233 -0.324632 -0.153916 0.023298 -0.098855 0.069180 0.017168 0.045065 -0.254700 -0.034007 0.144873 0.025085 -0.099404 -0.056648 0.056317 -0.118209 0.151120 -0.159797 0.084562 -0.011347 0.006749 0.124945 -0.153971 0.086530 0.007725 -0.140356 0.064379 -0.106918 -0.073600 
了 0.056186 0.234891 0.022489 0.226734 -0.131268 -0.055618 -0.047248 0.064244 -0.026316 -0.014587 0.015806 0.306899 -0.045468 0.241430 0.021302 0.141317 -0.012520 -0.005315 0.076171 -0.069444 0.051615 0.068637 0.033887 0.075988 0.012833 -0.217219 0.114770 -0.259599 0.011711 0.025191 -0.025877 -0.397396 -0.308207 0.000838 0.023120 0.294668 0.350851 -0.100376 -0.053602 0.238525 0.085980 0.062431 -0.363667 -0.180283 -0.101243 0.057372 -0.146738 -0.161638 -0.068216 0.117905 0.050336 0.210829 -0.117776 0.073530 -0.038045 0.063748 -0.164419 0.094153 0.161957 0.366946 0.178503 0.093681 -0.077223 -0.016019 0.108654 0.149732 -0.089930 0.059792 0.223911 -0.245193 0.007514 0.154881 -0.100532 -0.198935 -0.171749 -0.079750 -0.070291 -0.040932 -0.002126 0.173967 0.153924 -0.023730 0.245998 0.222841 -0.134885 0.026229 -0.186941 0.038685 -0.196475 -0.110929 -0.273602 0.000697 0.045275 -0.016817 0.272634 -0.149941 0.003843 -0.114782 0.132343 -0.005210 -0.149173 0.134414 -0.013020 -0.016456 0.096333 -0.123839 0.066204 0.075870 0.021408 -0.079302 0.093319 -0.097120 -0.069826 0.096381 -0.111686 0.064414 -0.303504 0.012818 -0.087554 -0.077971 0.150384 -0.094089 -0.197137 0.028674 -0.143462 0.018544 -0.080886 0.079109 0.318453 -0.057749 -0.210236 0.142399 -0.152127 0.171821 -0.015737 0.182740 0.125589 -0.032192 -0.165336 0.115886 -0.099124 0.056745 -0.126623 -0.070521 -0.247007 -0.020351 -0.136628 -0.111930 -0.175327 -0.068701 0.075956 -0.196990 -0.075647 0.262386 0.078446 -0.035268 0.048764 0.047127 -0.063767 -0.016113 0.188694 -0.152995 0.038045 0.047212 0.182011 -0.142329 -0.214403 0.064265 -0.128446 -0.091261 -0.418125 0.035837 0.135203 -0.074431 -0.211343 0.066949 0.198927 -0.106910 0.172303 0.489452 0.014788 -0.162151 -0.140391 0.003060 -0.066346 0.214102 0.018568 0.027805 -0.049643 -0.091619 -0.131890 0.011350 -0.060352 -0.104262 0.237338 -0.120030 -0.134690 0.145844 0.021868 0.005788 0.204794 -0.083887 -0.009951 -0.083065 -0.053890 0.121786 0.046266 0.140142 -0.089800 0.026630 -0.005085 -0.023803 -0.085312 0.406206 0.036044 0.071984 0.093182 0.059163 0.045006 0.058495 0.021190 0.045642 0.259714 -0.133899 0.208439 -0.311918 0.121669 0.049962 0.070869 -0.141760 0.047159 0.107976 0.118392 0.130615 0.045431 -0.274258 -0.030485 -0.003585 0.062720 0.123652 0.194549 0.182359 -0.013593 -0.089314 0.111293 0.176053 0.006678 0.184531 0.080797 0.174325 -0.031869 -0.061095 -0.102134 0.092595 -0.006642 -0.104913 0.019846 -0.283581 -0.200630 0.142478 0.209005 0.167881 0.025692 0.129897 -0.135919 0.050379 -0.064379 -0.375515 0.208680 0.113273 0.064047 0.101139 -0.162441 -0.013220 0.172397 -0.121111 0.073136 -0.075215 0.089282 0.052106 -0.026744 0.027832 -0.020757 -0.019613 -0.025129 -0.045160 -0.146764 -0.172150 0.162349 0.068089 0.193784 -0.063526 0.078925 -0.356513 0.045722 -0.225483 -0.385476 -0.039557 -0.036927 -0.002756 
